#pragma once
namespace Eloquent {
    namespace ML {
        namespace Port {
            class PCA {
                public:
                    /**
                    * Apply dimensionality reduction
                    * @warn Will override the source vector if no dest provided!
                    */
                    void transform(float *x, float *dest = NULL) {
                        static float u[5] = { 0 };
                        u[0] = dot(x,   0.00907359573  , 0.041226411962  , 0.039152201636  , 0.02895180819  , 0.044827444939  , 0.030357811042  , 0.030814340155  , 0.007598455913  , -0.011775028458  , -0.023786322678  , -0.039589172089  , -0.01596667883  , 0.001759744457  , 0.005284094444  , 0.027208002681  , 0.043151348205  , 0.033955949746  , 0.042817997637  , 0.016337772716  , 0.01266422048  , 0.030612022013  , 0.041771083466  , 0.046314110594  , 0.048456326749  , 0.039312988382  , 0.032301447163  , 0.009821569641  , -0.033348660946  , -0.063547568018  , -0.064742033967  , -0.063380438589  , -0.060898234594  , -0.05620188007  , -0.015869155623  , 0.018732459573  , 0.050563912245  , 0.050390582845  , 0.045162587545  , 0.031206361615  , 0.024408659817  , 0.037354839413  , 0.046644066624  , 0.051381672431  , 0.046298495975  , 0.027843721421  , 0.009346586136  , -0.033694456932  , -0.066866566381  , -0.054697958805  , -0.070572084106  , -0.064077731569  , -0.05793142346  , -0.050224110837  , -0.052511756893  , -0.028667130644  , 0.037914314761  , 0.05371873993  , 0.044303263823  , 0.042417033676  , 0.029067392441  , 0.032602557167  , 0.040865713472  , 0.048593998029  , 0.042406112075  , 0.029485519534  , -0.018594315576  , -0.03275439989  , -0.066566902986  , -0.066815633432  , -0.060050677536  , -0.058385802217  , -0.05756148974  , -0.059126659765  , -0.054198597511  , -0.042554623908  , -0.017554882562  , 0.049820792055  , 0.033118309316  , 0.053739520489  , 0.021666300762  , 0.036873474862  , 0.04759677216  , 0.055865876243  , 0.037748874083  , -0.003411009049  , -0.038381986819  , -0.060121626504  , -0.061847450953  , -0.061328405603  , -0.053462639487  , -0.043634491757  , -0.033499218387  , -0.026816107158  , -0.031899130982  , -0.055652447158  , -0.032818402329  , 0.016903913908  , 0.035547470754  , 0.044130305266  , 0.034610303237  , 0.028290302955  , 0.0486409227  , 0.048367058496  , 0.034710744196  , -0.006860739613  , -0.019576256263  , -0.019304490615  , -0.020928020695  , -0.014909916073  , -0.020404048035  , -0.011430916361  , -0.012439530847  , 0.007982032097  , 0.021104259482  , 0.000339028645  , -0.034444840444  , -0.00260484378  , 0.019187766201  , 0.041668425734  , 0.04236504804  , 0.028521153712  , 0.042910827483  , 0.044056448838  , 0.032381191613  , -0.015141388212  , -0.035960461567  , 0.00021513094  , 0.01544570244  , 0.006113146222  , -0.005607256402  , -0.023900190562  , -0.006676748044  , 0.005716341185  , -0.009605993313  , -0.003144042541  , -0.031958258012  , -0.027627998283  , -0.004605472438  , 0.054112888878  , 0.039303042827  , 0.02984238623  , 0.035465115448  , 0.041833063102  , 0.036307118843  , -0.02834274248  , -0.044744015313  , 0.008626106714  , -0.006712840562  , -0.047078426272  , -0.06224015501  , -0.053421018268  , 0.024682892993  , 0.015292249282  , 0.0040934939  , 0.0106814817  , -0.022044905696  , -0.04251369268  , 0.005409992063  , 0.050510537569  , 0.053326726802  , 0.02337179932  , 0.042492217122  , 0.040013166394  , 0.011339283643  , -0.036880102535  , -0.036159513232  , -0.034195040006  , -0.062761732678  , -0.067468879085  , -0.064241849883  , -0.044155737962  , -0.044472071411  , -0.052121943761  , -0.057042862799  , -0.044766985269  , -0.062410416831  , -0.02782152004  , 0.035458974436  , 0.062268370612  , 0.049408981569  , 0.02802879137  , 0.036053901164  , 0.030749822916  , 0.012993863757  , -0.021329351212  , -0.041634839832  , -0.067418703183  , -0.076903558467  , -0.085764754567  , -0.080680569758  , -0.065415890269  , -0.052722224748  , -0.052068914554  , -0.063032614869  , -0.05933197882  , -0.040008871648  , -0.007022804647  , 0.023160388432  , 0.050291104703  , 0.042761122919  , 0.02474020514  , 0.029718686783  , 0.018276870008  , -0.023238327976  , -0.053501505087  , -0.071657366683  , -0.086518129049  , -0.085023659771  , -0.094461977528  , -0.096469792497  , -0.083099164193  , -0.074190995046  , -0.077569726514  , -0.081498504211  , -0.081027152332  , -0.077013222806  , -0.029270040348  , -0.022615241577  , 0.049139827218  , 0.042843806346  , 0.031209301628  , 0.028686213589  , 0.010910482363  , -0.024240472482  , -0.075808504484  , -0.080659904643  , -0.090291781013  , -0.093739226346  , -0.09431278109  , -0.093046565063  , -0.086798790115  , -0.089045587549  , -0.091074877392  , -0.090415177312  , -0.090470647679  , -0.076054588057  , -0.041200705247  , -0.00333895617  , 0.051433746513  , 0.033973126435  , 0.02584174237  , 0.014215787532  , 0.019572236751  , -0.044369122313  , -0.052908359145  , -0.085758801587  , -0.091031066429  , -0.087185848518  , -0.084195171148  , -0.088649196195  , -0.083009875254  , -0.087000606179  , -0.082162535977  , -0.087810670745  , -0.089292358677  , -0.07821351459  , -0.054347967545  , -0.011663022608  , 0.040610889301  , 0.031603912706  , 0.031190098765  , 0.033052550294  , -0.006767372352  , -0.033828296505  , -0.056876376927  , -0.073909051127  , -0.094627335877  , -0.089646763404  , -0.092563942647  , -0.091867836866  , -0.087400092993  , -0.087149738026  , -0.082142462899  , -0.080975355955  , -0.082730463723  , -0.063121780408  , -0.062794186542  , -0.026007156894  , 0.020657416338  , 0.023469367974  , 0.036567650842  , 0.031773486882  , 0.020313075835  , -0.022605516468  , -0.057016783302  , -0.051390075391  , -0.091313971086  , -0.088610949744  , -0.085812497461  , -0.078226959189  , -0.06885719581  , -0.061923675973  , -0.081309416653  , -0.083404555262  , -0.083621511537  , -0.071613450384  , -0.06737233843  , -0.00630219545  , 0.025015250973  , 0.029178919993  , 0.040649647549  , 0.025274034578  , 0.027328688082  , -0.016211224488  , -0.061975331068  , -0.072808541525  , -0.040337092838  , -0.070429480266  , -0.091103838742  , -0.089548227217  , -0.066363829229  , -0.057601592731  , -0.061390571045  , -0.052492249134  , -0.058578770523  , -0.06272356955  , -0.04407478255  , 0.025405850372  , 0.028479866794  , 0.029718261252  , 0.030615100695  , 0.028148443091  , 0.019090871209  , 0.002272758744  , -0.025206824965  , -0.082681236095  , -0.041951310534  , -0.056341577457  , -0.074836497079  , -0.087429969751  , -0.084228177394  , -0.077405037204  , -0.058029870264  , -0.057234307037  , -0.064557604905  , -0.082994818227  , 0.007222488796  , 0.041681869931  , 0.030196066569  , 0.030046852402  , 0.032057505427  , 0.035221258514  , 0.016939115816  , -0.015645992611  , -0.0232388242  , -0.066122247421  , -0.029009351159  , -0.044615788732  , -0.059844023438  , -0.060718931717  , -0.081259172406  , -0.059882144519  , -0.043251353113  , -0.065896742911  , -0.056558546232  , -0.039695929019  , 0.023400461379  , 0.021290938193  , 0.002350829193  , 0.022360850232  , 0.019541835791  , 0.01432810314  , 0.010251236654  , 0.004529172587  , -0.012106857597  , -0.024650018587  , -0.058606388331  , -0.029504152764  , -0.03877324625  , -0.07015679059  , -0.072959955278  , -0.078989351084  , -0.051152079639  , -0.046053571843  , -0.027389934962  , 0.017953526039  , 0.033370236559  , 7.9292885e-05  , -0.000937557503  , -0.002992008768  , 0.005213575252  , 6.4116279e-05  , -0.007913619807  , 0.005327150147  , -0.01944423188  , -0.021573674281  , -0.041312763019  , -0.00510742219  , -0.045565229141  , -0.060828180257  , -0.065261894628  , -0.055521473944  , -0.042724129759  , 0.001949541768  , 0.018425847011  , 0.030237219797  , 0.023691468878  , 0.001559851814  , -0.007177343154  , -0.013493281612 );
                        u[1] = dot(x,   -0.078072770703  , -0.076798022735  , -0.050123110037  , -0.056902674112  , -0.081760573375  , -0.080915053254  , -0.078465939924  , -0.081721377839  , -0.070239348432  , -0.064094867558  , -0.062011963982  , -0.049668305074  , -0.027196966  , -0.027743662876  , -0.01955991871  , -0.020418940186  , -0.046714564603  , -0.038361103686  , -0.0439243252  , -0.054117565342  , -0.080715672703  , -0.077335192572  , -0.046540786457  , -0.054229576511  , -0.087429016697  , -0.077730632273  , -0.084291618489  , -0.075035007148  , -0.066433650318  , -0.053613931021  , -0.044249169339  , -0.050144633453  , -0.040492603796  , -0.021372297525  , -0.025479936676  , -0.041441383385  , -0.061129779816  , -0.043100312387  , -0.04646635925  , -0.052449143069  , -0.075359398264  , -0.068224438287  , -0.048548629729  , -0.076612824572  , -0.086274492389  , -0.077000331536  , -0.068004559321  , -0.058374926085  , -0.060744694018  , -0.039620080287  , -0.02488974935  , -0.023600405942  , -0.028247179218  , -0.021441537461  , -0.011789455252  , -0.038657843444  , -0.047229445754  , -0.069423577628  , -0.059993868772  , -0.049089534136  , -0.07348050822  , -0.072496775891  , -0.045401787219  , -0.085000087334  , -0.076061664176  , -0.059803099508  , -0.063251493844  , -0.028221204372  , -0.019584168911  , -0.028287313402  , -0.020655610616  , -0.018683516044  , -0.023800628918  , -0.017148613099  , -0.020417753626  , -0.029871781127  , -0.047767931051  , -0.076979884351  , -0.052343939324  , -0.0482367828  , -0.07678728693  , -0.070712767228  , -0.073547824252  , -0.082035888109  , -0.062591697129  , -0.046140689151  , -0.033469064456  , -0.028095822903  , -0.030553696871  , -0.048514701786  , -0.049127357494  , -0.058336615134  , -0.057485081293  , -0.039131523221  , -0.020701581064  , -0.035623364827  , -0.03330140242  , -0.066352856307  , -0.073261082562  , -0.061007892008  , -0.074059703777  , -0.072932531258  , -0.080423583396  , -0.09131078401  , -0.078534056197  , -0.060740463083  , -0.056518319112  , -0.037783247537  , -0.034111749115  , -0.05074451065  , -0.051456483626  , -0.032539371738  , -0.022570201312  , 0.002012261344  , 0.000570622322  , 0.00906697893  , -0.009259323142  , -0.066923826151  , -0.078766482522  , -0.070103903024  , -0.074252700706  , -0.074920787188  , -0.080648436556  , -0.100919266158  , -0.016093973109  , 0.003199322518  , -0.030203546735  , -0.053211395404  , -0.032374399284  , -0.036453444394  , -0.00837365151  , -0.012272439407  , -0.033270804569  , -0.04091546104  , -0.038976933326  , -0.033230057949  , -0.018002442563  , -0.051983740052  , -0.061378093449  , -0.075748078369  , -0.081693386771  , -0.063874456052  , -0.077989139147  , -0.090570351556  , -0.055196385944  , -0.04511098064  , -0.057395738046  , -0.053537682767  , -0.039967599869  , -0.035515598169  , -0.023581191746  , -0.058763298024  , -0.027106715075  , -0.005017939815  , -0.000719860054  , 0.001738938812  , -0.018337284418  , -0.049752642491  , -0.05171332938  , -0.05264041078  , -0.080168749994  , -0.070991518638  , -0.081191249536  , -0.081019304239  , -0.030792941329  , -0.034286179555  , -0.009026655292  , 0.010869595549  , -0.024714145025  , -0.046224108726  , -0.010727778519  , 0.008903198894  , -0.007101149567  , -0.025920906963  , -0.011445664563  , -0.02724632592  , -0.038520843025  , -0.045126897162  , -0.041769945553  , -0.05965553112  , -0.086613934613  , -0.066996106651  , -0.064631953183  , -0.086396937769  , -0.056861053277  , -0.009798158716  , -0.005181070788  , -0.00054150552  , 0.001764376308  , -0.018902176874  , -0.000718440316  , 0.003182121329  , -0.031112201546  , 0.003491029942  , 0.011695338337  , -0.01845095218  , -0.029394816695  , -0.034087921372  , -0.066916733151  , -0.066435300439  , -0.094730263915  , -0.065140384742  , -0.072454578289  , -0.08713336564  , -0.04352664791  , -0.025089516771  , -0.003961519554  , -0.011940475039  , 0.012372836893  , -0.011291619661  , 0.002056424857  , 0.023180315185  , 0.017482444798  , -0.002126701127  , 0.004923117212  , 0.004126610844  , -0.031357569613  , -0.04593483525  , -0.046421678018  , -0.05380482905  , -0.090945089799  , -0.078192913897  , -0.073145175855  , -0.095365959496  , -0.061456808637  , -0.038577065795  , -0.023968793133  , -0.027214333019  , 0.003905494021  , -0.028517558234  , -0.012842305852  , -0.005485899917  , -0.005391626991  , -0.015689346986  , -0.023726847916  , -0.04566778541  , -0.043574664633  , -0.059549078237  , -0.040653737174  , -0.05076508014  , -0.088266915957  , -0.079361464053  , -0.068314096268  , -0.078332085568  , -0.072479652202  , -0.024648474079  , -0.023522445629  , -0.018917828412  , -0.002086685256  , -0.009642448733  , -0.000470920962  , 0.008958659936  , 0.007981960142  , -0.006338888767  , -0.021569604719  , -0.028377502582  , -0.025362153154  , -0.037466161184  , -0.050203231078  , -0.056122996597  , -0.079983459469  , -0.061823599486  , -0.070482104433  , -0.057706645255  , -0.048322880159  , -0.025097314433  , -0.00700507232  , -0.007058693197  , -0.010795629953  , -0.003223889449  , 0.011564838825  , 0.012649914265  , -0.000239888013  , -0.002952546398  , -0.009192640806  , -0.033350830597  , -0.012317744252  , -0.035501588122  , -0.055386779939  , -0.054971096773  , -0.067877398891  , -0.068668904216  , -0.077283574165  , -0.05605693605  , -0.057128322488  , -0.036334929152  , -0.013518983888  , -0.00852963365  , -0.007469845065  , -0.001718917234  , -0.012293496026  , -0.018250989081  , -0.009912872137  , -0.020852006106  , -0.009248638947  , -0.023932045077  , -0.022388004415  , -0.053671491365  , -0.054962742227  , -0.068265541838  , -0.056530485992  , -0.068533209969  , -0.069193805885  , -0.063006818845  , -0.070764286305  , -0.041964653747  , -0.036425573889  , -0.010647445021  , -0.001615915531  , -0.010622068869  , -0.020085375395  , -0.018124564857  , -0.000302836383  , 0.003275685837  , -0.026919782216  , -0.052045208128  , -0.038540774326  , -0.034815559344  , -0.061193885029  , -0.059414541516  , -0.077798603917  , -0.077887400255  , -0.059942440078  , -0.063755347625  , -0.055916405884  , -0.055966552373  , -0.06999962708  , -0.034093566594  , -0.010263130357  , 0.004420563684  , -0.000738656262  , 0.00154171194  , -0.002305403731  , -0.034299316606  , -0.046402507829  , -0.024516474346  , -0.030424830023  , -0.034697097415  , -0.058656918158  , -0.062623850922  , -0.077612301859  , -0.075917493683  , -0.065020734507  , -0.047722455298  , -0.057904762169  , -0.032021124271  , -0.063255598049  , -0.062649667825  , -0.035636225236  , -0.047821215008  , -0.027935351309  , -0.018692242201  , -0.030094908164  , -0.033271769376  , -0.024466903545  , -0.035746370981  , 0.01270321082  , -0.023138342417  , -0.053988507271  , -0.059913487476  , -0.064835432995  , -0.053404554122  , -0.079694933277  , -0.068248310779  , -0.049435685032  , -0.048835115506  , -0.039813468048  , -0.058044656406  , -0.045710547682  , -0.017159586976  , -0.009593131975  , -0.013498045647  , -0.019237986983  , -0.02332461539  , -0.043231885113  , -0.020754218974  , -0.017107983487  , -0.064408441611  , -0.0511784141  , -0.061824986694  , -0.086648365383  , -0.085237566819  , -0.086668408551  , -0.052843776589  , -0.068436947138  , -0.05416774015  , -0.039181787565  , -0.068274361124  , -0.074858789465  , -0.037851463852  , -0.030862416766  , -0.044024264599  , -0.055802618669  , -0.042930855828  , 0.014369272419  , 0.002724631122  , -0.010869483359  , -0.065075185852  , -0.058582465587  , -0.058785631822 );
                        u[2] = dot(x,   0.024648352624  , 0.038836586073  , -0.018200314595  , -0.027493269164  , -0.031510272242  , -0.026833528169  , -0.026909441806  , -0.059664733506  , -0.080395869977  , -0.08157736474  , -0.075226423067  , -0.066343088  , -0.074759279358  , -0.062705328881  , -0.04737776829  , -0.043552025759  , -0.032673250059  , -0.026118392447  , -0.030717799355  , -0.029424095874  , 0.027660315035  , 0.038656679  , -0.018616690332  , -0.033063505246  , -0.033250485206  , -0.039880461067  , -0.058580420137  , -0.081672621971  , -0.069363245137  , -0.080409259931  , -0.087019893106  , -0.084642973874  , -0.086961858123  , -0.088547298124  , -0.071833741695  , -0.040753214699  , -0.025092417913  , -0.025763011911  , -0.015031382229  , -0.02837508021  , 0.043393007319  , 0.045502411256  , -0.021045751148  , -0.022999422896  , -0.045689197459  , -0.060515602715  , -0.074421008089  , -0.069715005489  , -0.084043491647  , -0.077549131498  , -0.088742046424  , -0.095511896959  , -0.099911805668  , -0.093499652416  , -0.088436540505  , -0.059298365146  , -0.048889181964  , -0.02199578128  , -0.016592697518  , -0.01239659914  , 0.047617202872  , 0.059253258159  , -0.007719417341  , -0.021854035129  , -0.051180639416  , -0.077674936674  , -0.094367028243  , -0.088355156433  , -0.089193197921  , -0.094157281323  , -0.093980072739  , -0.096847632569  , -0.090058525532  , -0.09180364798  , -0.086768855688  , -0.08167459927  , -0.055815230347  , -0.031911962529  , -0.02766614743  , -0.017045713253  , 0.049572782649  , 0.057888433694  , 0.04844399743  , -0.020421899111  , -0.064594954691  , -0.08176609778  , -0.08588005921  , -0.089755272785  , -0.089495606552  , -0.084041620887  , -0.094498918964  , -0.095666575707  , -0.091630799718  , -0.097663198735  , -0.085642604679  , -0.086391462572  , -0.069049555622  , -0.03214220962  , -0.031218329017  , -0.010718584886  , 0.047881598853  , 0.052139664317  , 0.0507661179  , -0.009544848641  , -0.068061507452  , -0.065638983327  , -0.061356924417  , -0.077541735179  , -0.085623674516  , -0.110633537276  , -0.103682913615  , -0.083079912343  , -0.079917160746  , -0.083857731676  , -0.081814161212  , -0.088840887829  , -0.083054958792  , -0.037287776704  , -0.0228734414  , 0.011204255471  , 0.046195583309  , 0.056725208284  , 0.052158318971  , 0.026961187144  , -0.069079007169  , -0.06362674629  , -0.045483873831  , -0.071995349608  , -0.101275766605  , -0.104645330597  , -0.092891204848  , -0.081207675741  , -0.071857506411  , -0.050728560615  , -0.049340196628  , -0.061176946843  , -0.049484581926  , -0.00134600524  , -0.013560388729  , -0.000217773132  , 0.045642357209  , 0.06222715195  , 0.054379444391  , 0.051001204138  , -0.030053274459  , -0.021908337749  , -0.007257221433  , -0.045035821388  , -0.071919748728  , -0.061081020382  , -0.009755841371  , 0.002630899531  , -0.006515953061  , -0.008438468906  , -0.006878961051  , -0.030967446731  , -0.027976586512  , -0.020799956259  , -0.005589817911  , 0.001367794168  , 0.052938737875  , 0.054906227502  , 0.049521224469  , 0.048109316085  , -0.000168689811  , -0.031144218066  , -0.029465706234  , -0.070503926034  , -0.046228534166  , -0.07040450463  , -0.048871675349  , -0.079551502487  , -0.081841327813  , -0.055259437642  , -0.023286607059  , -0.018638557802  , -0.018115506698  , -0.015592500802  , -0.010148299272  , 0.005047515058  , 0.047265405009  , 0.059582484692  , 0.043553701089  , 0.035923426064  , -0.004619545007  , -0.059257538776  , -0.077445797801  , -0.071857311476  , -0.025012478301  , -0.025116357818  , -0.040773982052  , -0.051263025394  , -0.047584051494  , -0.043373515591  , -0.034636090526  , -0.061483165295  , -0.020023642098  , -0.009888157654  , 0.006225325259  , 0.012892871044  , 0.029994692435  , 0.056767818761  , 0.055387241051  , 0.042548843297  , 0.020931615671  , -0.02386286109  , -0.040893055405  , -0.016514930119  , -0.011061324088  , -0.001570655522  , 0.009035634066  , 0.014573524901  , 0.014632718592  , 0.023189625648  , 0.021866420865  , 0.027989233626  , 0.060937637049  , 0.041875468965  , 0.033033399395  , 0.047989654714  , 0.040157019187  , 0.051156223378  , 0.049265914778  , 0.025257712943  , 0.025218170426  , 0.02580083977  , 0.001072787394  , 0.017165579785  , 0.030618300813  , 0.032732118005  , 0.031573261594  , 0.032017656329  , 0.040557738568  , 0.029973986798  , 0.038543356955  , 0.055177541971  , 0.059773126536  , 0.028040455234  , 0.022715928914  , 0.036173793018  , 0.035044235083  , 0.043390969421  , 0.046126307129  , 0.044765469138  , 0.039038096487  , 0.034157627905  , 0.023571914692  , 0.026312458524  , 0.045620924451  , 0.039148763581  , 0.042590984298  , 0.041374918653  , 0.051935349216  , 0.053044991218  , 0.045538862866  , 0.064753312303  , 0.067788323596  , 0.048092938818  , 0.03262417434  , 0.036005914853  , 0.020267548382  , 0.014732863592  , 0.038463612892  , 0.053769937686  , 0.053238531341  , 0.032505777864  , 0.026816533905  , 0.017036599805  , 0.009379360671  , 0.034811306503  , 0.042665241514  , 0.039462977666  , 0.047100729381  , 0.061758693263  , 0.064616798501  , 0.081177700143  , 0.075897887478  , 0.052595782528  , 0.0346498753  , 0.046149657616  , 0.028716371158  , 0.022896712646  , 0.021851967685  , 0.059302044202  , 0.054935456037  , 0.046284437821  , 0.03580352367  , 0.031895157805  , 0.034016328813  , 0.058711881015  , 0.046699525783  , 0.043527029243  , 0.039145308462  , 0.037649787205  , 0.052046130074  , 0.063657985438  , 0.055509638667  , 0.044951049411  , 0.018855012551  , 0.022811457738  , 0.010579191439  , 0.008917376006  , 0.006358901463  , 0.04915382486  , 0.039318385205  , 0.022550461205  , 0.026073583205  , 0.039473125449  , 0.019355071516  , 0.037181233934  , 0.047089073802  , 0.070218268372  , 0.064941178157  , 0.08996412425  , 0.073590922079  , 0.056363266257  , 0.047573113407  , 0.03896496778  , 0.031552401217  , 0.041632965142  , -0.016108575509  , -0.00417983455  , -0.010899704155  , 0.008730253582  , 0.018341875145  , -0.01558812471  , -0.008673143693  , -0.001034498944  , 0.005918663163  , 0.00094293849  , 0.040313650851  , 0.051156395074  , 0.055710874481  , 0.068710496051  , 0.060525687932  , 0.050819056919  , 0.030039402898  , 0.017854381244  , 0.028541423893  , 0.034088254299  , -0.00272822941  , 0.011771140118  , 0.013200650705  , 0.031886685323  , 0.031737513793  , 0.015215059423  , 0.009483403551  , 0.017954519976  , 0.046180635507  , 0.0285045765  , 0.022542735956  , 0.058410067284  , 0.048268535476  , 0.069167086641  , 0.061906851735  , 0.004191258459  , 0.012709001777  , 0.015044056679  , 0.028648520981  , 0.036086304562  , -0.008235800295  , 0.001474725728  , 0.027984608722  , 0.024559570326  , 0.057395997601  , 0.031041265002  , 0.037361350721  , 0.039042470869  , 0.041440082577  , 0.041109244493  , 0.037044039266  , 0.03103686016  , 0.058518847765  , 0.054073509135  , 0.001577137014  , -0.014920730484  , -0.01545448559  , 0.014179547982  , 0.032797801159  , 0.025331338516  , 0.002130708328  , 0.015010021857  , 0.032528743739  , 0.018730835346  , 0.042050296122  , 0.038300817198  , 0.017098757699  , 0.025003671861  , 0.033074549839  , 0.027383366122  , 0.023775281932  , 0.030723690185  , -0.033955368543  , -0.087396262634  , -0.000161632935  , -0.001158010298  , -0.004884487857  , 0.00123740099  , 0.013743489082  , 0.021852019734 );
                        u[3] = dot(x,   0.046162453778  , 0.040603196638  , 0.091866335035  , 0.08919836909  , 0.057252528662  , 0.06977080639  , 0.057037264167  , 0.056146176263  , 0.055018637642  , 0.066823479872  , 0.047932555876  , 0.073509521387  , 0.082747562361  , 0.079291885761  , 0.100816831251  , 0.080831447901  , 0.067680835772  , 0.061853539041  , 0.025959532439  , 0.020076135717  , 0.05326776882  , 0.040515062114  , 0.091353541636  , 0.080801115641  , 0.057590797075  , 0.043288011182  , 0.03441035834  , 0.029226626356  , 0.000771389214  , -0.016713281267  , -0.019015310856  , -0.019658636862  , 0.001190227446  , 0.036856369825  , 0.065762904181  , 0.056693039872  , 0.048397734948  , 0.054898180245  , 0.019835043662  , -0.00321867777  , 0.011833312406  , 0.022782714147  , 0.08752720359  , 0.059570529672  , 0.03833747509  , 0.009076582808  , -0.004411719754  , -0.012959559359  , 0.012089123433  , -0.031751802886  , -0.044970745157  , -0.042734143712  , -0.041155300402  , -0.04807762199  , -0.024316755843  , 0.048267363442  , 0.038239071344  , 0.039683208311  , 0.053151986173  , 0.008177619561  , 0.014010592064  , 0.03154941463  , 0.08584449463  , 0.043876390612  , 0.025475065324  , -0.01570475842  , 0.000512498974  , -0.025892563011  , -0.027310029174  , -0.033796031724  , -0.046121307899  , -0.038525366796  , -0.051457176535  , -0.058651909541  , -0.068543349124  , -0.046964935011  , 0.031012929043  , 0.028550433575  , 0.035353350978  , 0.026621956259  , 0.016316235183  , 0.030224831291  , 0.034512432414  , 0.045051500599  , 0.018940222644  , -0.015721908691  , -0.021506594246  , -0.036141328668  , -0.036020521272  , -0.004825367613  , -0.00761144493  , -0.002423873589  , -0.001443844379  , -0.029431971947  , -0.054220324381  , -0.055658884054  , -0.014029470137  , 0.01605449218  , 0.030738519183  , 0.01454295451  , 0.027963932804  , 0.026846076557  , 0.024410701397  , 0.037547910923  , -0.009448486808  , -0.051671463845  , -0.007243308552  , -0.01002302173  , 0.028527429748  , 0.000857384047  , 0.010973071336  , 0.039272204297  , 0.037480360768  , 0.024054308323  , 0.006950974005  , -0.044983087115  , -0.026789363498  , -0.009202646716  , 0.033070841219  , -0.012554634929  , 0.043261244609  , 0.033905031062  , 0.021589194173  , 0.004512345703  , 0.022661148809  , 0.004805179154  , -0.027586995212  , 0.017203722124  , -0.01383524852  , 0.007561601868  , 0.025055258493  , 0.020489035824  , 0.003842851962  , 0.017749980805  , 0.00765984516  , -0.069591603743  , -0.083898680373  , -0.047396283546  , 0.01782193315  , -0.022372942649  , 0.013630938375  , 0.042995045179  , 0.021474055983  , 0.009974588034  , -0.036041666388  , -0.023417373495  , 0.041668745015  , 0.081736743916  , 0.014486431316  , -0.028671323367  , -0.030688821059  , 0.029644441738  , 0.014423172038  , 0.004295777653  , 0.010174407484  , -0.058367744747  , -0.082580989024  , -0.051957779136  , 0.020677669907  , -0.04488612367  , 0.015753912456  , 0.039788473575  , 0.016823174459  , -0.021195908827  , 0.02728982529  , 0.047113100392  , 0.104575035896  , 0.036566743824  , 0.0658723027  , 0.017242417267  , -0.010379205736  , 0.026089578141  , 0.022683987529  , 0.018195022609  , 0.03139712086  , -0.05935793065  , -0.10382649186  , -0.007791768602  , 0.000494978465  , -0.036951848276  , 0.014681682205  , 0.055224368811  , 0.032615352251  , 0.014046585064  , 0.035213408289  , 0.065388257116  , 0.02710733235  , 0.005177726771  , -0.011593072146  , -0.02418003397  , -0.059178071363  , -0.042827818025  , -0.049500326961  , -0.064372587099  , -0.050936784068  , -0.066114213226  , -0.077581932721  , 0.023973343798  , -0.04350852223  , -0.044380863952  , -0.013058027431  , 0.057602353699  , 0.024383433032  , 0.032910139221  , 0.090632534478  , 0.057472160951  , 0.00657223064  , 0.015340960735  , 1.9767054e-05  , -0.004577655726  , -0.01238589384  , -0.052130178449  , -0.056214782748  , -0.050451394742  , -0.058385806081  , -0.042828169139  , 0.046166261993  , 0.03191873924  , -0.04152647354  , -0.056384065151  , -0.036637378004  , 0.042611320925  , 0.039432175541  , 0.035308832291  , 0.050084271919  , 0.03865147339  , -0.010689154759  , 0.011676575385  , -0.004096753423  , 0.014070813078  , -0.001800360174  , -0.026390804603  , -0.021013201464  , -0.025434976353  , -0.036798658442  , 0.004600633453  , 0.053502572553  , 0.022678865747  , -0.061906685103  , -0.079377200062  , -0.062178521268  , -0.003255580926  , -0.001138079951  , 0.035407839371  , 0.031749732572  , 0.012846973505  , -0.004333971246  , -0.007524966904  , -0.00663211862  , -0.008288088156  , -0.02787653697  , -0.027373453945  , -0.032774151906  , -0.026687851392  , -0.033145214223  , 0.002725546103  , 0.046315377654  , 0.017241776351  , -0.066102703904  , -0.090395508984  , -0.085397725111  , -0.067316817533  , -0.027074849484  , 0.02585118369  , 0.028519026843  , 0.065664355701  , -0.001526370133  , -0.012824200299  , 0.004536226969  , 0.015445180563  , 0.004352794054  , -0.004518252256  , -0.030281173355  , -0.026037466068  , -0.028127405141  , 0.025851313286  , 0.037608114292  , -0.001471084622  , -0.084400748518  , -0.08873825088  , -0.089142749891  , -0.061582247431  , -0.046680338242  , 0.013221076846  , 0.020617809854  , 0.03270949694  , -0.002454943468  , -0.011303305011  , -0.001503738157  , -0.01475634321  , -0.037254428409  , -0.046594664206  , -0.019676387223  , -0.015702902529  , -0.008495275393  , 0.03886347831  , 0.037545600552  , -0.041504108651  , -0.10016588121  , -0.079830538094  , -0.080537991427  , -0.052456494043  , -0.058930360918  , 0.020146563334  , 0.018745966552  , 0.01976714071  , 0.053153000448  , 0.040737231559  , 0.013684545569  , 0.005369405231  , -0.02498078826  , -0.028358877731  , -0.017491899493  , 0.03265437817  , 0.053118402905  , 0.010567110433  , 0.011090287722  , -0.101294734276  , -0.096119690939  , -0.085548922962  , -0.08494555045  , -0.055065669235  , -0.05057908035  , 0.006740727138  , 0.003530833835  , 0.020468760608  , 0.071763719411  , 0.091397323579  , 0.065279955434  , 0.026887769999  , 0.009083150632  , 0.007378634571  , 0.033087792577  , 0.05725643604  , 0.040892257456  , -0.018726653547  , -0.062819991867  , -0.116643225702  , -0.092588939129  , -0.092576537587  , -0.09197715521  , -0.072525313897  , -0.081806789994  , -0.054141470245  , -0.007168879865  , 0.027459794132  , 0.050585441312  , 0.074838528524  , 0.075515914928  , 0.073639984441  , 0.055888505062  , 0.034357306275  , 0.031098020911  , 0.052658361124  , 0.037340618577  , -0.05550614196  , -0.116816732184  , -0.137897817636  , -0.105692589213  , -0.089606754707  , -0.093656428654  , -0.098375097249  , -0.083385228647  , -0.087987145303  , -0.014873570654  , -0.013685015716  , 0.033690909796  , 0.052108439822  , 0.081809940328  , 0.049392648493  , 0.031150849454  , 0.00931145459  , 0.044548216576  , 0.067891680923  , -0.040627691208  , -0.119193432616  , -0.125354074436  , -0.103452951397  , -0.104083389294  , -0.100088054078  , -0.0989164258  , -0.102601842247  , -0.079163449646  , -0.087645376096  , -0.033227562358  , 0.003310847133  , -0.032752324322  , 0.031278523274  , 0.002688553056  , 0.024847363972  , 0.004539850495  , 0.02084057287  , 0.064381050826  , -0.020119026345  , -0.091632612296  , -0.133659297536  , -0.136868091872  , -0.085549476181  , -0.101385761701  , -0.099305036041 );
                        u[4] = dot(x,   0.007854923891  , -0.064040497558  , 0.016725393984  , 0.06120135935  , 0.02564898768  , -0.006051082411  , 0.027832755123  , 0.038657082631  , 0.025703797259  , -0.007617803161  , -0.051753500941  , -0.076082324354  , -0.093724248809  , -0.103975870265  , -0.029661629185  , 0.022264264473  , 0.052665725398  , 0.073714850649  , 0.123133621841  , 0.136174651202  , -0.063646319856  , -0.057982471007  , 0.059380125146  , 0.044531151705  , 0.028697436263  , 0.06975075683  , 0.078954270507  , 0.046881669976  , 0.023194938748  , 0.007980517355  , -0.004818053581  , -0.018266447367  , -0.055700723303  , -0.105196194429  , -0.097773901482  , -0.066619126827  , -0.014129395282  , 0.059936353341  , 0.121084196596  , 0.129849176507  , -0.045149258979  , -0.061552401182  , 0.065318659618  , 0.040505856593  , 0.084037108035  , 0.091622428646  , 0.056023422043  , 0.011940286553  , 0.017451082552  , -0.007346896094  , -0.014454459519  , -0.025198110034  , -0.029604612112  , -0.05575081901  , -0.095485641207  , -0.082383633994  , -0.044833908312  , -0.000921398348  , 0.048287585565  , 0.135712314266  , -0.050974699861  , -0.059399646073  , 0.06719968109  , 0.037951586061  , 0.102851293317  , 0.080963766468  , 0.036579122359  , -0.005093939002  , -0.022012767998  , -0.016621170026  , -0.029006300043  , -0.031194623966  , -0.038046899839  , -0.050004461285  , -0.075327058651  , -0.100347769689  , -0.052243174758  , -0.009727250084  , 0.028901022362  , 0.128529937135  , -0.052121969466  , -0.056326809233  , -0.020873031921  , 0.052630945964  , 0.08903496018  , 0.047024280223  , 0.021890666179  , -0.002908497739  , -0.005269446469  , 0.00544602668  , 0.000778755278  , 0.001047193442  , -0.017373656624  , -0.037367405405  , -0.056905603354  , -0.065209610284  , -0.091650958693  , -0.025377952162  , 0.005728207542  , 0.110839699028  , -0.017235444235  , -0.049937882467  , -0.034310522166  , 0.025442389977  , 0.063186847564  , 0.020184554575  , -0.016303429705  , -0.064432473266  , -0.058639738827  , -0.003970073781  , -0.035075942083  , -0.08286944028  , -0.097613012754  , -0.036544979359  , 0.009914546074  , -0.002754242154  , -0.075828819269  , -0.038474573548  , -0.017945371427  , 0.084227196114  , -0.021294421187  , -0.040093218187  , -0.039603101663  , 0.012388859486  , 0.109092989855  , 0.055350273737  , 0.093135086211  , -0.008632803749  , -0.060455263889  , -0.023874073006  , 0.053701709918  , 0.099504319613  , 0.021773202581  , -0.03191308977  , -0.075535205074  , -0.066791646375  , -0.072095699342  , -0.069516848485  , -0.041459831665  , 0.062383736395  , 0.00331402005  , -0.029377194158  , -0.031764379182  , 0.008991405631  , 0.078070289736  , 0.09348345132  , 0.123866503239  , 0.038500704426  , 0.000743826118  , 0.012972605382  , 0.014370039877  , -0.077418785579  , 0.039190217903  , 0.055874981471  , 0.06469018295  , 0.000937271234  , -0.071202607531  , -0.075143229336  , -0.041301255575  , 0.045606581163  , 0.030056976733  , -0.061870025227  , -0.059928172938  , -0.034730809755  , 0.051086073364  , -0.027060016617  , 0.05627520006  , 0.059804863019  , 0.059045876231  , 0.034351739086  , 0.047647284884  , 0.055474921169  , 0.012942299531  , 0.016510750063  , 0.01792415775  , -0.010115084976  , -0.031481730926  , -0.044852660828  , -0.02058424145  , 0.047136201386  , 0.026112938277  , -0.070189286085  , -0.074342126205  , -0.040105934235  , 0.058989280051  , 0.0691717733  , 0.030851204192  , 0.000475437047  , 0.027931882463  , -0.034984761272  , 0.028113897534  , 0.007438134838  , 0.008655458689  , -0.030501632142  , -0.087094982937  , -0.096401451511  , -0.09752739002  , -0.0586907807  , 0.046692416636  , 0.034532947762  , 0.025530865589  , -0.04950824587  , -0.054825612655  , -0.015007540729  , -0.00363628284  , 0.06386823145  , 0.041791561663  , 0.044830708439  , 0.021180647379  , -0.008318974628  , -0.003471848907  , -0.014452348396  , -0.002340210936  , 0.011636610675  , -0.004411203392  , -0.063233508439  , -0.044989395164  , -0.037914821852  , 0.020525015123  , 0.021882755158  , 0.027741496654  , -0.048213121759  , -0.036214852779  , -0.036398204503  , 0.018613898756  , 0.077035303785  , 0.056592523708  , 0.020791951092  , 0.005585732854  , -0.003152047627  , -0.00807709579  , -0.011979844521  , 0.006779358906  , -0.006031484784  , -0.005871300575  , -0.000271033935  , -0.037335332575  , -0.036530353977  , 0.03202578146  , 0.046338662764  , 0.023078061628  , -0.034118014247  , -0.071533023759  , -0.02320782473  , 0.009703646307  , 0.074479943853  , 0.051834295986  , 0.048002917563  , 0.029716532527  , -0.000675627606  , 0.030121993346  , -0.002034212848  , 0.027993173604  , 0.007189751722  , 0.009339283979  , 0.01805213516  , -0.025428035189  , 0.002537834429  , 0.044831338063  , 0.062600143357  , 0.012103758986  , -0.041783130417  , -0.041883433239  , -0.004428533694  , 0.011224574978  , 0.064787341192  , 0.018442344388  , 0.003286876997  , 0.023073811109  , -0.005424029857  , -0.00278350104  , 0.006401840024  , 0.000827140668  , 0.031833312969  , 0.017477574033  , 0.037392361494  , -0.009018349941  , 0.032704297299  , 0.073558308198  , 0.071438937522  , 0.010991231238  , -0.030311041355  , -0.064410338915  , -0.019372290075  , -0.021623076176  , 0.090849110367  , 0.043757527467  , 0.050735480557  , 0.070597906946  , 0.060644637557  , 0.038582067729  , 0.006578312728  , 0.017198418378  , 0.018430474376  , 0.015542950234  , 0.026125500108  , -0.026857302053  , 0.046661363061  , 0.070946584432  , 0.079760789679  , 0.003819904735  , -0.039320279957  , -0.073136497347  , -0.044308230209  , -0.026453280953  , -0.012150112194  , 0.093524576648  , 0.051964176315  , 0.036946487488  , 0.00937218483  , -0.019750174437  , 0.00570818987  , -0.029403930425  , -0.018354163666  , -0.004070863817  , -0.002767136366  , -0.044257769276  , 0.062678222852  , 0.062054143616  , 0.069917892368  , 0.032312829082  , 0.012231168427  , -0.03432554773  , -0.006920637632  , -0.000346554517  , -0.018581766417  , -0.008282738271  , 0.051747499611  , 0.061879364931  , 0.031046750455  , 0.024878489126  , 0.028266659246  , 0.009812912414  , 0.00232006325  , 0.001581177245  , 0.001090433444  , -0.043603321613  , 0.050107773583  , 0.070180090318  , 0.066629002837  , 0.027818930867  , 0.015450537259  , -0.011516461848  , -0.038160907739  , -0.027259374638  , -0.066501212625  , -0.036585212109  , 0.003573461113  , 0.061765680149  , 0.036721453955  , 0.017164913012  , 0.017150912769  , 0.012938447103  , 0.009754539161  , -0.040956774176  , -0.060146206091  , -0.011942820408  , 0.04989741294  , 0.044988740434  , 0.052652665093  , -0.046548114635  , -0.059443764709  , -0.001579646796  , -0.057895061046  , -0.027981880072  , -0.074960081874  , -0.097414301329  , -0.081285354123  , -0.041605004073  , -0.049086982357  , -0.05043229113  , -0.054073708789  , -0.052727048793  , -0.052442048073  , -0.066067275007  , 0.002437490794  , 0.042518818607  , 0.050503677925  , 0.03831138607  , 0.021438227077  , 0.006479817952  , 0.01500575503  , 0.00530443961  , -0.055559059887  , -0.036870105377  , -0.074449205764  , -0.105593807252  , -0.089089101987  , -0.094529169258  , -0.054646080813  , -0.066594311055  , -0.074189488348  , -0.030109950749  , -0.031379665192  , -0.018553038367  , 0.001235880283  , 0.035514015263  , -0.02208427435  , 0.022053901974  , 0.0132599957 );
                        memcpy(dest != NULL ? dest : x, u, sizeof(float) * 5);
                    }

                protected:
                    /**
                    * Compute dot product with varargs
                    */
                    float dot(float *x, ...) {
                        va_list w;
                        va_start(w, 400);
                        static float mean[] = {  -0.0 , -0.0 , 0.0 , -0.0 , 0.0 , 0.0 , 0.0 , 0.0 , -0.0 , -0.0 , 0.0 , -0.0 , -0.0 , 0.0 , 0.0 , 0.0 , -0.0 , -0.0 , -0.0 , -0.0 , 0.0 , -0.0 , -0.0 , 0.0 , 0.0 , 0.0 , 0.0 , 0.0 , 0.0 , -0.0 , -0.0 , -0.0 , 0.0 , 0.0 , 0.0 , -0.0 , 0.0 , -0.0 , -0.0 , -0.0 , -0.0 , 0.0 , 0.0 , 0.0 , -0.0 , -0.0 , -0.0 , -0.0 , 0.0 , 0.0 , -0.0 , -0.0 , -0.0 , -0.0 , 0.0 , 0.0 , 0.0 , 0.0 , -0.0 , 0.0 , 0.0 , 0.0 , -0.0 , -0.0 , -0.0 , -0.0 , -0.0 , 0.0 , 0.0 , -0.0 , -0.0 , -0.0 , -0.0 , -0.0 , 0.0 , -0.0 , 0.0 , -0.0 , -0.0 , 0.0 , 0.0 , 0.0 , -0.0 , -0.0 , -0.0 , 0.0 , -0.0 , -0.0 , 0.0 , 0.0 , -0.0 , -0.0 , 0.0 , 0.0 , -0.0 , 0.0 , 0.0 , -0.0 , 0.0 , 0.0 , 0.0 , 0.0 , 0.0 , -0.0 , 0.0 , 0.0 , -0.0 , -0.0 , 0.0 , 0.0 , -0.0 , 0.0 , 0.0 , 0.0 , -0.0 , -0.0 , 0.0 , 0.0 , -0.0 , 0.0 , -0.0 , 0.0 , -0.0 , 0.0 , 0.0 , 0.0 , 0.0 , 0.0 , 0.0 , 0.0 , -0.0 , -0.0 , -0.0 , -0.0 , -0.0 , -0.0 , 0.0 , -0.0 , 0.0 , 0.0 , 0.0 , -0.0 , -0.0 , 0.0 , -0.0 , 0.0 , 0.0 , 0.0 , 0.0 , 0.0 , 0.0 , -0.0 , -0.0 , -0.0 , 0.0 , -0.0 , -0.0 , -0.0 , -0.0 , 0.0 , 0.0 , 0.0 , -0.0 , -0.0 , 0.0 , 0.0 , -0.0 , 0.0 , 0.0 , 0.0 , -0.0 , -0.0 , 0.0 , -0.0 , -0.0 , 0.0 , -0.0 , -0.0 , -0.0 , -0.0 , -0.0 , -0.0 , 0.0 , 0.0 , -0.0 , -0.0 , -0.0 , 0.0 , -0.0 , 0.0 , 0.0 , -0.0 , -0.0 , 0.0 , 0.0 , 0.0 , 0.0 , -0.0 , -0.0 , 0.0 , 0.0 , -0.0 , 0.0 , -0.0 , 0.0 , 0.0 , 0.0 , -0.0 , -0.0 , -0.0 , 0.0 , 0.0 , -0.0 , -0.0 , -0.0 , 0.0 , 0.0 , -0.0 , -0.0 , -0.0 , 0.0 , 0.0 , -0.0 , 0.0 , -0.0 , -0.0 , -0.0 , -0.0 , -0.0 , -0.0 , -0.0 , 0.0 , -0.0 , -0.0 , -0.0 , -0.0 , -0.0 , -0.0 , 0.0 , -0.0 , -0.0 , -0.0 , -0.0 , -0.0 , 0.0 , -0.0 , -0.0 , 0.0 , -0.0 , 0.0 , 0.0 , -0.0 , -0.0 , -0.0 , -0.0 , -0.0 , -0.0 , 0.0 , 0.0 , -0.0 , 0.0 , -0.0 , -0.0 , 0.0 , 0.0 , 0.0 , -0.0 , 0.0 , 0.0 , -0.0 , -0.0 , 0.0 , 0.0 , 0.0 , 0.0 , -0.0 , 0.0 , -0.0 , 0.0 , -0.0 , 0.0 , 0.0 , 0.0 , -0.0 , -0.0 , -0.0 , -0.0 , -0.0 , -0.0 , -0.0 , 0.0 , 0.0 , 0.0 , -0.0 , 0.0 , -0.0 , -0.0 , -0.0 , -0.0 , -0.0 , 0.0 , 0.0 , -0.0 , 0.0 , 0.0 , 0.0 , 0.0 , 0.0 , 0.0 , 0.0 , 0.0 , 0.0 , 0.0 , -0.0 , -0.0 , 0.0 , -0.0 , 0.0 , 0.0 , 0.0 , 0.0 , -0.0 , -0.0 , -0.0 , 0.0 , -0.0 , -0.0 , 0.0 , -0.0 , -0.0 , 0.0 , 0.0 , 0.0 , 0.0 , -0.0 , -0.0 , 0.0 , -0.0 , -0.0 , -0.0 , 0.0 , 0.0 , 0.0 , 0.0 , 0.0 , -0.0 , 0.0 , 0.0 , -0.0 , -0.0 , 0.0 , 0.0 , -0.0 , 0.0 , 0.0 , 0.0 , -0.0 , -0.0 , -0.0 , 0.0 , -0.0 , 0.0 , 0.0 , 0.0 , -0.0 , 0.0 , 0.0 , -0.0 , 0.0 , 0.0 , -0.0 , -0.0 , 0.0 , 0.0 , -0.0 , -0.0 , 0.0 , 0.0 , 0.0 , -0.0 , -0.0 , -0.0 , -0.0 , 0.0 , 0.0 , -0.0 , 0.0 , 0.0 , 0.0 , 0.0 , 0.0 , 0.0 , -0.0 , 0.0 , -0.0 , 0.0 , 0.0 , 0.0 , 0.0 , -0.0  };
                        float dot = 0.0;

                        for (uint16_t i = 0; i < 400; i++) {
                            dot += (x[i] - mean[i]) * va_arg(w, double);
                        }

                        return dot;
                    }
                };
            }
        }
    }

#define PCA_INPUT_SIZE 400
